digraph Tree {
node [shape=box, style="filled", color="black"] ;
0 [label="SSAP <= 0.5\ngini = 0.026\nsamples = 150\nvalue = [148, 2]\nclass = Is pork", fillcolor="#e5833c"] ;
1 [label="gini = 0.0\nsamples = 148\nvalue = [148, 0]\nclass = Is pork", fillcolor="#e58139"] ;
0 -> 1 [labeldistance=2.5, labelangle=45, headlabel="True"] ;
2 [label="gini = 0.0\nsamples = 2\nvalue = [0, 2]\nclass = Is not pork", fillcolor="#399de5"] ;
0 -> 2 [labeldistance=2.5, labelangle=-45, headlabel="False"] ;
}
